<?xml version="1.0"?>
<MethodSetup Method="MLP::MLP">
  <GeneralInfo>
    <Info name="TMVA Release" value="4.2.0 [262656]"/>
    <Info name="ROOT Release" value="5.34/30 [336414]"/>
    <Info name="Creator" value="tianjp"/>
    <Info name="Date" value="Wed Jan  9 12:55:45 2019"/>
    <Info name="Host" value="Linux cw02.cc.kek.jp 2.6.32-642.el6.x86_64 #1 SMP Tue May 10 15:13:20 CDT 2016 x86_64 x86_64 x86_64 GNU/Linux"/>
    <Info name="Dir" value="/gpfs/group/ilc/tianjp/analysis/IDR/IsolatedLeptonTagging/training_v3/macros_yyxyev_yycyyc_500"/>
    <Info name="Training events" value="200000"/>
    <Info name="TrainingTime" value="9.80619942e+02"/>
    <Info name="AnalysisType" value="Classification"/>
  </GeneralInfo>
  <Options>
    <Option name="NCycles" modified="Yes">500</Option>
    <Option name="HiddenLayers" modified="Yes">N+5</Option>
    <Option name="NeuronType" modified="Yes">tanh</Option>
    <Option name="RandomSeed" modified="No">1</Option>
    <Option name="EstimatorType" modified="No">MSE</Option>
    <Option name="NeuronInputType" modified="No">sum</Option>
    <Option name="V" modified="Yes">False</Option>
    <Option name="VerbosityLevel" modified="No">Default</Option>
    <Option name="VarTransform" modified="Yes">N</Option>
    <Option name="H" modified="Yes">True</Option>
    <Option name="CreateMVAPdfs" modified="No">False</Option>
    <Option name="IgnoreNegWeightsInTraining" modified="No">False</Option>
    <Option name="TrainingMethod" modified="No">BP</Option>
    <Option name="LearningRate" modified="No">2.000000e-02</Option>
    <Option name="DecayRate" modified="No">1.000000e-02</Option>
    <Option name="TestRate" modified="Yes">10</Option>
    <Option name="EpochMonitoring" modified="Yes">True</Option>
    <Option name="Sampling" modified="No">1.000000e+00</Option>
    <Option name="SamplingEpoch" modified="No">1.000000e+00</Option>
    <Option name="SamplingImportance" modified="No">1.000000e+00</Option>
    <Option name="SamplingTraining" modified="No">True</Option>
    <Option name="SamplingTesting" modified="No">False</Option>
    <Option name="ResetStep" modified="No">50</Option>
    <Option name="Tau" modified="No">3.000000e+00</Option>
    <Option name="BPMode" modified="No">sequential</Option>
    <Option name="BatchSize" modified="No">-1</Option>
    <Option name="ConvergenceImprove" modified="No">1.000000e-30</Option>
    <Option name="ConvergenceTests" modified="No">-1</Option>
    <Option name="UseRegulator" modified="No">False</Option>
    <Option name="UpdateLimit" modified="No">10000</Option>
    <Option name="CalculateErrors" modified="No">False</Option>
    <Option name="WeightRange" modified="No">1.000000e+00</Option>
  </Options>
  <Variables NVar="7">
    <Variable VarIndex="0" Expression="coneec" Label="coneec" Title="coneec" Unit="" Internal="coneec" Type="c" Min="0.00000000e+00" Max="2.56648895e+02"/>
    <Variable VarIndex="1" Expression="coneen" Label="coneen" Title="coneen" Unit="" Internal="coneen" Type="c" Min="0.00000000e+00" Max="1.87344360e+02"/>
    <Variable VarIndex="2" Expression="momentum" Label="momentum" Title="momentum" Unit="" Internal="momentum" Type="m" Min="5.00000525e+00" Max="2.19369537e+02"/>
    <Variable VarIndex="3" Expression="coslarcon" Label="coslarcon" Title="coslarcon" Unit="" Internal="coslarcon" Type="c" Min="9.50000346e-01" Max="1.00000000e+00"/>
    <Variable VarIndex="4" Expression="energyratio" Label="energyratio" Title="energyratio" Unit="" Internal="energyratio" Type="e" Min="1.44580053e-02" Max="1.00000000e+00"/>
    <Variable VarIndex="5" Expression="ratioecal" Label="ratioecal" Title="ratioecal" Unit="" Internal="ratioecal" Type="r" Min="9.00001824e-01" Max="1.00000000e+00"/>
    <Variable VarIndex="6" Expression="ratiototcal" Label="ratiototcal" Title="ratiototcal" Unit="" Internal="ratiototcal" Type="r" Min="5.00001669e-01" Max="1.29999757e+00"/>
  </Variables>
  <Spectators NSpec="0"/>
  <Classes NClass="2">
    <Class Name="Signal" Index="0"/>
    <Class Name="Background" Index="1"/>
  </Classes>
  <Transformations NTransformations="1">
    <Transform Name="Normalize">
      <Selection>
        <Input NInputs="7">
          <Input Type="Variable" Label="coneec" Expression="coneec"/>
          <Input Type="Variable" Label="coneen" Expression="coneen"/>
          <Input Type="Variable" Label="momentum" Expression="momentum"/>
          <Input Type="Variable" Label="coslarcon" Expression="coslarcon"/>
          <Input Type="Variable" Label="energyratio" Expression="energyratio"/>
          <Input Type="Variable" Label="ratioecal" Expression="ratioecal"/>
          <Input Type="Variable" Label="ratiototcal" Expression="ratiototcal"/>
        </Input>
        <Output NOutputs="7">
          <Output Type="Variable" Label="coneec" Expression="coneec"/>
          <Output Type="Variable" Label="coneen" Expression="coneen"/>
          <Output Type="Variable" Label="momentum" Expression="momentum"/>
          <Output Type="Variable" Label="coslarcon" Expression="coslarcon"/>
          <Output Type="Variable" Label="energyratio" Expression="energyratio"/>
          <Output Type="Variable" Label="ratioecal" Expression="ratioecal"/>
          <Output Type="Variable" Label="ratiototcal" Expression="ratiototcal"/>
        </Output>
      </Selection>
      <Class ClassIndex="0">
        <Ranges>
          <Range Index="0" Min="0.0000000000000000e+00" Max="2.3331050109863281e+02"/>
          <Range Index="1" Min="0.0000000000000000e+00" Max="1.7884042358398438e+02"/>
          <Range Index="2" Min="5.0081653594970703e+00" Max="2.1936953735351562e+02"/>
          <Range Index="3" Min="9.5000034570693970e-01" Max="1.0000000000000000e+00"/>
          <Range Index="4" Min="3.4136932343244553e-02" Max="1.0000000000000000e+00"/>
          <Range Index="5" Min="9.0076291561126709e-01" Max="1.0000000000000000e+00"/>
          <Range Index="6" Min="5.0186085700988770e-01" Max="1.2971632480621338e+00"/>
        </Ranges>
      </Class>
      <Class ClassIndex="1">
        <Ranges>
          <Range Index="0" Min="0.0000000000000000e+00" Max="2.5664889526367188e+02"/>
          <Range Index="1" Min="0.0000000000000000e+00" Max="1.8734436035156250e+02"/>
          <Range Index="2" Min="5.0000052452087402e+00" Max="1.2570375061035156e+02"/>
          <Range Index="3" Min="9.5046490430831909e-01" Max="1.0000000000000000e+00"/>
          <Range Index="4" Min="1.4458005316555500e-02" Max="1.0000000000000000e+00"/>
          <Range Index="5" Min="9.0000182390213013e-01" Max="1.0000000000000000e+00"/>
          <Range Index="6" Min="5.0000166893005371e-01" Max="1.2999975681304932e+00"/>
        </Ranges>
      </Class>
      <Class ClassIndex="2">
        <Ranges>
          <Range Index="0" Min="0.0000000000000000e+00" Max="2.5664889526367188e+02"/>
          <Range Index="1" Min="0.0000000000000000e+00" Max="1.8734436035156250e+02"/>
          <Range Index="2" Min="5.0000052452087402e+00" Max="2.1936953735351562e+02"/>
          <Range Index="3" Min="9.5000034570693970e-01" Max="1.0000000000000000e+00"/>
          <Range Index="4" Min="1.4458005316555500e-02" Max="1.0000000000000000e+00"/>
          <Range Index="5" Min="9.0000182390213013e-01" Max="1.0000000000000000e+00"/>
          <Range Index="6" Min="5.0000166893005371e-01" Max="1.2999975681304932e+00"/>
        </Ranges>
      </Class>
    </Transform>
  </Transformations>
  <MVAPdfs/>
  <Weights>
    <Layout NLayers="3">
      <Layer Index="0" NNeurons="8">
        <Neuron NSynapses="12">
          8.2731819349925444e-04 -8.4455980476155684e-02 -1.3233829940677566e+00 -3.7985786017254899e-02 -1.7179719722168671e+00 -3.9573761453215933e-01 -8.9537013511512886e-01 1.8566421035249334e+00 -1.6850216401923430e+00 -2.0356549011030692e-01 -5.9453987412950084e+00 1.0856292784930004e+00 
        </Neuron>
        <Neuron NSynapses="12">
          -7.3295408339965940e-01 3.2804437475046516e-01 9.8519901103414775e-01 2.2995675971058871e-01 -1.2019328049313056e+00 2.2641893058977898e+00 -4.8721223854670886e-01 1.7362184575010065e+00 1.6947685763679323e+00 -1.9975028917531923e-01 1.9273364807618685e+00 -2.9316157999757353e-01 
        </Neuron>
        <Neuron NSynapses="12">
          -1.6487168291870418e+00 4.5819502699741959e+00 2.1024092114630264e+00 -2.0367961036006843e+00 -1.7004813976680868e+00 7.4545710571054558e-01 4.3975758723416787e+00 2.2984085617107235e+00 -2.7931264904860953e-01 -1.5042692384655854e-02 9.5419974150259657e-01 -7.9032102992076378e+00 
        </Neuron>
        <Neuron NSynapses="12">
          8.0788391138801341e-01 2.5496954824532247e+00 -1.0559079516721101e-03 1.8706564776168468e+00 2.9091931895607988e+00 -2.6221463907836834e-01 2.4664881970887493e+00 3.5243873884567956e-01 -1.3686484786949531e+00 -1.0279493104234811e+00 -3.4609634997311672e-01 4.6798531246327263e-01 
        </Neuron>
        <Neuron NSynapses="12">
          -4.3083176589728295e-01 2.6442707226231676e-01 1.7120188719856426e+00 3.9925128612748784e-01 -1.9460050967047946e+00 1.1475366897179566e+00 -1.4803142984842830e+00 -3.6598769908788381e-01 -1.9918666450108407e+00 -3.8622436580822606e-01 1.8705741761430639e+00 -8.9454056346035549e-01 
        </Neuron>
        <Neuron NSynapses="12">
          -1.2698963525150719e+00 6.3423107119168498e-01 8.4299184541946104e-01 1.1683013445297677e-01 -6.4339655583265376e-01 -4.4307466815352814e-01 -6.4647139455788905e-01 -6.6223869867405555e-02 -8.5428457572338190e-01 -8.1944352715372537e-02 9.4964252678719596e-01 -1.2710889386974218e+00 
        </Neuron>
        <Neuron NSynapses="12">
          8.7585067079710092e-03 3.4667796622108438e-01 9.1445798921131038e-01 6.5532488325972679e-02 -1.4237644987734221e-01 -1.1676436858664954e+00 -1.1649634514349110e-01 3.7773434697517833e-01 8.2091024748473559e-02 1.6129589069431446e-01 1.0280937948541014e+00 -8.6420735846502839e-01 
        </Neuron>
        <Neuron NSynapses="12">
          -1.0212794986942872e+00 8.8125469420059110e-01 9.3011783329209330e-01 -4.3338312882264747e+00 -5.4550463229306594e+00 -2.8296715719938503e+00 2.0640481731710101e+00 -9.4268589628086552e-01 2.2187391776074228e+00 -9.1812294668332420e-02 -3.9843216749012402e+00 -5.7881068433873377e+00 
        </Neuron>
      </Layer>
      <Layer Index="1" NNeurons="13">
        <Neuron NSynapses="1">
          -4.4816781936108739e-02 
        </Neuron>
        <Neuron NSynapses="1">
          -3.1788316162089159e-01 
        </Neuron>
        <Neuron NSynapses="1">
          -4.7516211724542301e-01 
        </Neuron>
        <Neuron NSynapses="1">
          4.1728482135223477e-01 
        </Neuron>
        <Neuron NSynapses="1">
          -3.4115931401234811e-01 
        </Neuron>
        <Neuron NSynapses="1">
          -1.3312355512065610e+00 
        </Neuron>
        <Neuron NSynapses="1">
          3.0536791102856070e-01 
        </Neuron>
        <Neuron NSynapses="1">
          7.4996370521751532e-01 
        </Neuron>
        <Neuron NSynapses="1">
          -1.1539379989639933e-01 
        </Neuron>
        <Neuron NSynapses="1">
          1.0428136342047305e-01 
        </Neuron>
        <Neuron NSynapses="1">
          3.7587939323036246e-01 
        </Neuron>
        <Neuron NSynapses="1">
          -4.7211661779273539e-01 
        </Neuron>
        <Neuron NSynapses="1">
          7.4711953481625404e-02 
        </Neuron>
      </Layer>
      <Layer Index="2" NNeurons="1">
        <Neuron NSynapses="0"/>
      </Layer>
    </Layout>
  </Weights>
</MethodSetup>
