<?xml version="1.0"?>
<MethodSetup Method="MLP::MLP">
  <GeneralInfo>
    <Info name="TMVA Release" value="4.2.0 [262656]"/>
    <Info name="ROOT Release" value="5.34/30 [336414]"/>
    <Info name="Creator" value="tianjp"/>
    <Info name="Date" value="Fri Jul  6 01:29:04 2018"/>
    <Info name="Host" value="Linux cw02.cc.kek.jp 2.6.32-642.el6.x86_64 #1 SMP Tue May 10 15:13:20 CDT 2016 x86_64 x86_64 x86_64 GNU/Linux"/>
    <Info name="Dir" value="/gpfs/group/ilc/tianjp/analysis/IDR/IsolatedLeptonTagging/training/macros_yyxyev_yycyyc_500"/>
    <Info name="Training events" value="200000"/>
    <Info name="TrainingTime" value="1.38660095e+03"/>
    <Info name="AnalysisType" value="Classification"/>
  </GeneralInfo>
  <Options>
    <Option name="NCycles" modified="Yes">500</Option>
    <Option name="HiddenLayers" modified="Yes">N+5</Option>
    <Option name="NeuronType" modified="Yes">tanh</Option>
    <Option name="RandomSeed" modified="No">1</Option>
    <Option name="EstimatorType" modified="No">MSE</Option>
    <Option name="NeuronInputType" modified="No">sum</Option>
    <Option name="V" modified="Yes">False</Option>
    <Option name="VerbosityLevel" modified="No">Default</Option>
    <Option name="VarTransform" modified="Yes">N</Option>
    <Option name="H" modified="Yes">True</Option>
    <Option name="CreateMVAPdfs" modified="No">False</Option>
    <Option name="IgnoreNegWeightsInTraining" modified="No">False</Option>
    <Option name="TrainingMethod" modified="No">BP</Option>
    <Option name="LearningRate" modified="No">2.000000e-02</Option>
    <Option name="DecayRate" modified="No">1.000000e-02</Option>
    <Option name="TestRate" modified="Yes">10</Option>
    <Option name="EpochMonitoring" modified="Yes">True</Option>
    <Option name="Sampling" modified="No">1.000000e+00</Option>
    <Option name="SamplingEpoch" modified="No">1.000000e+00</Option>
    <Option name="SamplingImportance" modified="No">1.000000e+00</Option>
    <Option name="SamplingTraining" modified="No">True</Option>
    <Option name="SamplingTesting" modified="No">False</Option>
    <Option name="ResetStep" modified="No">50</Option>
    <Option name="Tau" modified="No">3.000000e+00</Option>
    <Option name="BPMode" modified="No">sequential</Option>
    <Option name="BatchSize" modified="No">-1</Option>
    <Option name="ConvergenceImprove" modified="No">1.000000e-30</Option>
    <Option name="ConvergenceTests" modified="No">-1</Option>
    <Option name="UseRegulator" modified="No">False</Option>
    <Option name="UpdateLimit" modified="No">10000</Option>
    <Option name="CalculateErrors" modified="No">False</Option>
    <Option name="WeightRange" modified="No">1.000000e+00</Option>
  </Options>
  <Variables NVar="9">
    <Variable VarIndex="0" Expression="coneec" Label="coneec" Title="coneec" Unit="" Internal="coneec" Type="c" Min="0.00000000e+00" Max="3.43663818e+02"/>
    <Variable VarIndex="1" Expression="coneen" Label="coneen" Title="coneen" Unit="" Internal="coneen" Type="c" Min="0.00000000e+00" Max="1.82735901e+02"/>
    <Variable VarIndex="2" Expression="momentum" Label="momentum" Title="momentum" Unit="" Internal="momentum" Type="m" Min="5.00003052e+00" Max="2.35543518e+02"/>
    <Variable VarIndex="3" Expression="coslarcon" Label="coslarcon" Title="coslarcon" Unit="" Internal="coslarcon" Type="c" Min="9.50000346e-01" Max="1.00000000e+00"/>
    <Variable VarIndex="4" Expression="energyratio" Label="energyratio" Title="energyratio" Unit="" Internal="energyratio" Type="e" Min="6.65669749e-03" Max="1.00000000e+00"/>
    <Variable VarIndex="5" Expression="ratioecal" Label="ratioecal" Title="ratioecal" Unit="" Internal="ratioecal" Type="r" Min="9.00001109e-01" Max="1.00000000e+00"/>
    <Variable VarIndex="6" Expression="ratiototcal" Label="ratiototcal" Title="ratiototcal" Unit="" Internal="ratiototcal" Type="r" Min="5.00000596e-01" Max="1.29991949e+00"/>
    <Variable VarIndex="7" Expression="nsigd0" Label="nsigd0" Title="nsigd0" Unit="" Internal="nsigd0" Type="n" Min="-4.99905052e+01" Max="4.99894600e+01"/>
    <Variable VarIndex="8" Expression="nsigz0" Label="nsigz0" Title="nsigz0" Unit="" Internal="nsigz0" Type="n" Min="-4.99904099e+01" Max="4.99997482e+01"/>
  </Variables>
  <Spectators NSpec="0"/>
  <Classes NClass="2">
    <Class Name="Signal" Index="0"/>
    <Class Name="Background" Index="1"/>
  </Classes>
  <Transformations NTransformations="1">
    <Transform Name="Normalize">
      <Selection>
        <Input NInputs="9">
          <Input Type="Variable" Label="coneec" Expression="coneec"/>
          <Input Type="Variable" Label="coneen" Expression="coneen"/>
          <Input Type="Variable" Label="momentum" Expression="momentum"/>
          <Input Type="Variable" Label="coslarcon" Expression="coslarcon"/>
          <Input Type="Variable" Label="energyratio" Expression="energyratio"/>
          <Input Type="Variable" Label="ratioecal" Expression="ratioecal"/>
          <Input Type="Variable" Label="ratiototcal" Expression="ratiototcal"/>
          <Input Type="Variable" Label="nsigd0" Expression="nsigd0"/>
          <Input Type="Variable" Label="nsigz0" Expression="nsigz0"/>
        </Input>
        <Output NOutputs="9">
          <Output Type="Variable" Label="coneec" Expression="coneec"/>
          <Output Type="Variable" Label="coneen" Expression="coneen"/>
          <Output Type="Variable" Label="momentum" Expression="momentum"/>
          <Output Type="Variable" Label="coslarcon" Expression="coslarcon"/>
          <Output Type="Variable" Label="energyratio" Expression="energyratio"/>
          <Output Type="Variable" Label="ratioecal" Expression="ratioecal"/>
          <Output Type="Variable" Label="ratiototcal" Expression="ratiototcal"/>
          <Output Type="Variable" Label="nsigd0" Expression="nsigd0"/>
          <Output Type="Variable" Label="nsigz0" Expression="nsigz0"/>
        </Output>
      </Selection>
      <Class ClassIndex="0">
        <Ranges>
          <Range Index="0" Min="0.0000000000000000e+00" Max="2.2651605224609375e+02"/>
          <Range Index="1" Min="0.0000000000000000e+00" Max="1.7884042358398438e+02"/>
          <Range Index="2" Min="5.0107412338256836e+00" Max="2.3554351806640625e+02"/>
          <Range Index="3" Min="9.5000034570693970e-01" Max="1.0000000000000000e+00"/>
          <Range Index="4" Min="3.5430423915386200e-02" Max="1.0000000000000000e+00"/>
          <Range Index="5" Min="9.0038806200027466e-01" Max="1.0000000000000000e+00"/>
          <Range Index="6" Min="5.0255852937698364e-01" Max="1.2998807430267334e+00"/>
          <Range Index="7" Min="-4.9972881317138672e+01" Max="4.9989459991455078e+01"/>
          <Range Index="8" Min="-4.9537250518798828e+01" Max="4.9829963684082031e+01"/>
        </Ranges>
      </Class>
      <Class ClassIndex="1">
        <Ranges>
          <Range Index="0" Min="0.0000000000000000e+00" Max="3.4366381835937500e+02"/>
          <Range Index="1" Min="0.0000000000000000e+00" Max="1.8273590087890625e+02"/>
          <Range Index="2" Min="5.0000305175781250e+00" Max="1.3388728332519531e+02"/>
          <Range Index="3" Min="9.5106726884841919e-01" Max="1.0000000000000000e+00"/>
          <Range Index="4" Min="6.6566974855959415e-03" Max="1.0000000000000000e+00"/>
          <Range Index="5" Min="9.0000110864639282e-01" Max="1.0000000000000000e+00"/>
          <Range Index="6" Min="5.0000059604644775e-01" Max="1.2999194860458374e+00"/>
          <Range Index="7" Min="-4.9990505218505859e+01" Max="4.9971683502197266e+01"/>
          <Range Index="8" Min="-4.9990409851074219e+01" Max="4.9999748229980469e+01"/>
        </Ranges>
      </Class>
      <Class ClassIndex="2">
        <Ranges>
          <Range Index="0" Min="0.0000000000000000e+00" Max="3.4366381835937500e+02"/>
          <Range Index="1" Min="0.0000000000000000e+00" Max="1.8273590087890625e+02"/>
          <Range Index="2" Min="5.0000305175781250e+00" Max="2.3554351806640625e+02"/>
          <Range Index="3" Min="9.5000034570693970e-01" Max="1.0000000000000000e+00"/>
          <Range Index="4" Min="6.6566974855959415e-03" Max="1.0000000000000000e+00"/>
          <Range Index="5" Min="9.0000110864639282e-01" Max="1.0000000000000000e+00"/>
          <Range Index="6" Min="5.0000059604644775e-01" Max="1.2999194860458374e+00"/>
          <Range Index="7" Min="-4.9990505218505859e+01" Max="4.9989459991455078e+01"/>
          <Range Index="8" Min="-4.9990409851074219e+01" Max="4.9999748229980469e+01"/>
        </Ranges>
      </Class>
    </Transform>
  </Transformations>
  <MVAPdfs/>
  <Weights>
    <Layout NLayers="3">
      <Layer Index="0" NNeurons="10">
        <Neuron NSynapses="14">
          -6.6268909762818694e-03 1.5657145271694111e+00 -4.2167282978091447e-01 4.7597994740164096e-01 -6.0128912844995708e-01 -9.6276934246815926e-01 2.0821223966181461e-02 -7.4186024985706089e-01 -5.4998039731714889e-02 -4.6319586168153321e-01 -1.8563959412648716e+00 -6.6310303587956554e-01 -3.5947409936350816e+00 3.1420214546067970e-01 
        </Neuron>
        <Neuron NSynapses="14">
          -3.7027557789761251e-01 -2.5732422582303577e-01 -4.9176465220277277e-01 1.9686537902886025e-01 2.8516450346764297e+00 1.6958694372417482e-01 -2.1522078771327759e+00 -6.3760092503326249e-01 1.2983489595197928e+00 4.4426233648810848e-01 -1.2939511878522063e+00 -4.9392019770111567e-01 1.4919877238865242e+00 8.3063625802188290e-02 
        </Neuron>
        <Neuron NSynapses="14">
          -1.5103154608014622e+00 -1.5174175819938671e+00 1.4652363161496222e+00 -5.6011496456028642e-01 -1.1702387985055036e+00 -1.2227037139829779e+00 1.7302553621338299e-01 -2.0987731058701389e+00 2.0769370947931509e-01 5.2726075076211023e+00 -1.6296651671808866e+00 6.5719670252195392e+00 3.7795834887882551e-01 -6.6535338383652372e+00 
        </Neuron>
        <Neuron NSynapses="14">
          2.5403969499873691e+00 3.0021487401712660e-01 -2.3154492094402169e-02 -1.8131888599828192e+00 -3.2967281646615682e-01 1.6147166350791045e+00 1.6125846381475231e-01 2.2960854689805652e+00 -1.9084962043029818e-01 1.2502596776839578e+00 -1.1993868748305356e+00 8.9681676230943019e-01 -5.9553770156643149e-01 9.1127650612929434e-01 
        </Neuron>
        <Neuron NSynapses="14">
          -2.9917611284491308e+00 -3.2617232403437959e+00 8.1854249484585428e-01 8.1934891289807099e-01 -1.2174185718753563e+00 4.5068924124915616e-01 8.1199698064895298e-02 -9.0242418507620203e-01 2.9358887091355945e+00 -4.1202387073847013e-01 -2.6623078836493341e-01 2.7039058194542287e-01 1.8389878166701161e+00 -9.4159014843513689e-01 
        </Neuron>
        <Neuron NSynapses="14">
          -1.3578189900494637e+00 -9.2746974258835480e-01 6.7307413068497857e-01 1.2233095601264872e+00 -1.0876991817873947e+00 -4.4613375328820915e-01 -4.0903365197871339e-01 -1.8739599315392468e+00 4.9504510162156040e-01 -5.3177008000005233e-01 1.5254930275558432e+00 9.2003140416910001e-01 4.2959011722604329e-01 -1.2298754068276532e+00 
        </Neuron>
        <Neuron NSynapses="14">
          -2.1252263743524782e-01 -8.9485978862119386e-01 2.4862751303755365e-01 5.5688558503380325e-01 -3.6829426726578190e-01 -2.8996412649192038e-01 -4.7905433543339321e-01 -3.0130884875168157e-01 1.3603011461494245e+00 -1.8200200312107889e-01 -6.0874115155986641e-01 7.9129586734572421e-01 6.6354167505999173e-01 -8.6717711254685648e-01 
        </Neuron>
        <Neuron NSynapses="14">
          -1.3266346338513005e-01 -2.2011122491998883e-01 -5.9912851269028594e-02 7.2151746984875989e-02 4.4771044036118694e-02 -4.8541490077785743e-02 -6.1223378192670086e-01 -1.0531683929560490e-01 -1.4335394323384995e-01 6.2196232936681502e-03 -7.1765120614296296e-02 5.6021733104223558e-02 -5.1078828712618138e-03 -1.0582936875612532e-01 
        </Neuron>
        <Neuron NSynapses="14">
          3.0802844306194164e+00 -9.7609815590101040e-02 -2.1606034250000197e+00 6.1842507909693740e+00 4.9020835311006561e-01 1.0737171605314701e+00 6.1913857042743059e-01 2.4332764100459005e-02 -8.0557136541122421e-01 1.5780125095747310e-01 -3.8995932324646626e-01 4.4044340093856649e+00 -8.8043384635021715e-01 -5.3619299205187350e+00 
        </Neuron>
        <Neuron NSynapses="14">
          -1.1357510736323775e-01 -7.0332401794757499e-02 -1.5596310884797286e+00 -4.9719173601821831e-01 2.9203371195241861e+00 -1.3455125267204395e+00 1.5160464824239259e+00 -2.3067285924316572e+00 1.6324062127258659e-01 5.3874359588233816e+00 2.2536988348703670e+00 2.8662949678670402e+00 -2.3565002992104125e+00 -5.2637854482527864e+00 
        </Neuron>
      </Layer>
      <Layer Index="1" NNeurons="15">
        <Neuron NSynapses="1">
          2.0830935945288012e-01 
        </Neuron>
        <Neuron NSynapses="1">
          1.6252532221086857e-01 
        </Neuron>
        <Neuron NSynapses="1">
          -3.4468899441964151e-01 
        </Neuron>
        <Neuron NSynapses="1">
          -1.8262843590983002e-01 
        </Neuron>
        <Neuron NSynapses="1">
          -4.1235456539978732e-01 
        </Neuron>
        <Neuron NSynapses="1">
          -1.6434327583168243e-01 
        </Neuron>
        <Neuron NSynapses="1">
          3.6136066192864719e-01 
        </Neuron>
        <Neuron NSynapses="1">
          -2.3415428457499149e-01 
        </Neuron>
        <Neuron NSynapses="1">
          -3.4971729998600087e-01 
        </Neuron>
        <Neuron NSynapses="1">
          3.8683922655319586e-01 
        </Neuron>
        <Neuron NSynapses="1">
          -2.6773414317413069e-01 
        </Neuron>
        <Neuron NSynapses="1">
          -3.4972696163587280e-01 
        </Neuron>
        <Neuron NSynapses="1">
          7.4007289248517250e-01 
        </Neuron>
        <Neuron NSynapses="1">
          -5.1708110822822728e-01 
        </Neuron>
        <Neuron NSynapses="1">
          1.5656140093391064e-03 
        </Neuron>
      </Layer>
      <Layer Index="2" NNeurons="1">
        <Neuron NSynapses="0"/>
      </Layer>
    </Layout>
  </Weights>
</MethodSetup>
